lstm/lstm_cell/kernel:0
(1, 256)
[[ 1.78901792e-01 -6.14765622e-02  8.97390783e-01 -9.81756598e-02
   1.07352473e-01  2.17461795e-01  7.91970730e-01  1.50909558e-01
   6.86105266e-02 -3.46588157e-02 -1.43628307e-02  1.24556325e-01
  -4.02811654e-02 -2.03927547e-01  9.07029584e-02  1.77810818e-01
   1.09584583e-02  8.03436488e-02  1.56225845e-01  3.49468827e-01
   9.82448459e-02 -3.03097013e-02  1.80288061e-01  1.26894578e-01
   5.81711195e-02 -3.12842950e-02  2.59709239e-01  4.46706526e-02
   2.49274760e-01  6.14510536e-01  1.94221765e-01 -1.99914575e-02
  -2.88756669e-01 -7.35824108e-02 -1.49146114e-02 -5.94442850e-03
  -8.20405707e-02 -8.99875071e-03  5.08487830e-03  6.25207722e-02
   2.22960234e-01 -1.44441560e-01 -1.02023527e-01  9.49583203e-02
   9.44567546e-02 -6.20342232e-02 -3.33537534e-02  2.73803286e-02
   1.78399742e-01  2.71344669e-02 -1.79972962e-01  5.15068732e-02
  -8.74793828e-02  8.77697840e-02  1.25763223e-01 -8.26282725e-02
  -5.10061868e-02  1.43563986e-01  8.27476159e-02 -4.91366871e-02
  -1.38848439e-01  4.55094278e-02  1.69423014e-01 -4.48059328e-02
   1.26970336e-01  1.54294133e-01 -2.87820339e-01  6.32532910e-02
  -4.22245599e-02 -3.47044505e-02  3.54160219e-01  1.90392986e-01
   1.27118215e-01  4.26763035e-02  1.00658469e-01 -4.41502929e-02
  -1.16353720e-01 -1.22111790e-01 -1.55184388e-01 -1.06902130e-01
   4.70144711e-02 -4.87537459e-02  1.76739872e-01 -1.63543120e-01
  -6.42081574e-02 -1.06413821e-02  1.28701061e-01  5.52433617e-02
   9.47692245e-02  1.85434133e-01  8.39984859e-04  1.38801381e-01
   2.71244377e-01 -4.13066149e-02  5.17451093e-02  1.40257359e-01
  -3.20720583e-01  1.22202903e-01 -9.59854275e-02 -1.48017451e-01
  -1.03918605e-01 -5.17064705e-02  4.24882323e-02  1.69125050e-01
   2.36695297e-02 -9.92132723e-02 -2.89068520e-01 -8.10662657e-02
   8.52815062e-03 -1.45705706e-02  1.13185070e-01 -1.73571650e-02
   5.02359569e-02 -8.46016183e-02 -7.46404529e-02  6.62853643e-02
   1.71921149e-01  4.78720404e-02  3.64529788e-02 -1.20218685e-02
   6.98722228e-02  5.37194945e-02  1.19480208e-01 -1.46041751e-01
  -3.27572264e-02 -2.81340070e-02  9.32763889e-02  9.75503996e-02
  -2.06101075e-01 -4.13872190e-02  3.95919383e-01  1.90447375e-01
   3.26401666e-02 -2.29919091e-01  4.53089207e-01  4.38096076e-02
  -1.49993189e-02  4.59773839e-02  2.94450615e-02  1.82563722e-01
  -2.38713682e-01 -4.64530885e-02 -7.78625607e-02 -7.61598945e-02
  -1.46471485e-01  1.06884055e-01  2.20949724e-01 -1.94888338e-01
   5.20120822e-02 -1.36708230e-01  1.88354403e-01  2.26619273e-01
  -5.18953316e-02  1.25546888e-01 -2.45098114e-01 -5.96736260e-02
  -1.59965605e-01  3.81323248e-01  1.28864899e-01 -5.39377294e-02
   2.31518857e-02 -1.96757495e-01  2.08999246e-01 -1.79244101e-01
  -5.13876081e-02 -2.08576769e-01 -1.58571582e-02 -1.52209610e-01
   1.54591262e-01  4.93904613e-02 -2.53719866e-01 -4.97623272e-02
   6.82824329e-02  1.62781149e-01  1.54369652e-01 -7.79024966e-04
   2.14518130e-01  2.97036134e-02 -5.51689342e-02  7.28082806e-02
   3.26117454e-03 -5.59846349e-02  1.05211213e-01 -2.11617306e-01
   2.70182490e-01 -2.59534009e-02 -1.80466756e-01  7.23373219e-02
   1.12289287e-01 -8.05636495e-03 -1.51347548e-01 -1.30185053e-01
   1.58170372e-01  5.06029949e-02  8.69704783e-01  2.34832615e-02
   3.63576151e-02  2.18294099e-01  1.08331382e+00  2.36532241e-01
   1.71797067e-01  3.75680119e-01  1.03656150e-01  3.07638198e-01
   2.22656687e-04 -1.21778443e-01  1.34767136e-02  2.21364364e-01
   1.17263027e-01  7.20747709e-02  2.04666215e-03  7.38526136e-02
  -1.05038889e-01  1.55490860e-01  3.52120176e-02  1.83508530e-01
   2.83979643e-02 -5.37060313e-02  5.17398380e-02  1.91272274e-01
   7.63093233e-01  3.04069579e-01 -1.16523420e-02  1.88313350e-02
  -4.22352076e-01 -1.40113771e-01  1.29962146e-01  6.29856586e-02
  -2.27237105e-01 -3.04234743e-01  7.67500093e-03  1.69198364e-02
   2.26314172e-01 -2.92048901e-01 -2.68734187e-01  5.97404316e-03
   5.27772121e-02  1.62148446e-01 -7.79950544e-02 -7.29803219e-02
   3.08885068e-01 -8.16239342e-02 -4.86375950e-02  1.64026663e-01
   2.16476917e-01  4.45469439e-01  3.25445607e-02  1.10078961e-01
   1.87019706e-01  2.36041039e-01  2.08974779e-01 -1.15190208e-01
  -7.60439932e-02  7.16066435e-02 -8.25723931e-02 -8.17354843e-02]]
lstm/lstm_cell/recurrent_kernel:0
(64, 256)
[[-0.12953445  0.0384828  -0.4358871  ...  0.14545064  0.05468808
  -0.05107692]
 [-0.10522059 -0.00331862 -0.3702484  ...  0.05773585  0.01927828
  -0.00345527]
 [-0.07587042 -0.03587009 -0.15810162 ... -0.00218148 -0.0139142
   0.05752555]
 ...
 [-0.04548627  0.00094929  0.2618793  ...  0.02820836 -0.03269329
   0.04954534]
 [ 0.04048952  0.08764686  0.1252035  ...  0.0414983   0.04966497
  -0.08000407]
 [ 0.14309059  0.06437819  0.21051994 ...  0.06755716  0.0159742
   0.08028105]]
lstm/lstm_cell/bias:0
(256,)
[ 6.6023409e-02 -9.0763941e-03  9.6363795e-01  3.4291476e-02
 -5.4638010e-02  6.4289793e-02  7.0732480e-01 -7.7386446e-02
 -2.4540441e-03  1.0612756e-02 -3.1610664e-03  6.4976566e-02
  8.4343657e-02 -6.0933493e-02 -1.4352404e-03  7.9707671e-03
  5.0858300e-02  1.3927490e-01  6.0299937e-02  3.3757281e-01
  5.8804336e-03  1.0019237e-02  5.7644062e-02  1.4344575e-01
 -2.8508084e-03  5.3724493e-03  1.4019571e-01  1.0710531e-02
  2.2917737e-01  7.3073709e-01  8.4189773e-02 -6.8738766e-02
 -4.0152747e-02  8.2223445e-02  9.8292023e-02  7.4800991e-02
 -7.6498181e-02  5.4869331e-02 -9.1507928e-03  3.4558207e-02
  6.2210537e-02 -8.1704512e-02  2.2218469e-01 -4.6926141e-03
  2.6595933e-02  4.4614907e-02  2.5192864e-02 -2.9120816e-02
  2.2333044e-01 -2.0157851e-02 -4.4690710e-02 -8.2592294e-02
 -4.8808698e-02  3.3933230e-02 -5.1927507e-02  2.5601005e-02
  7.1884066e-02 -7.0989788e-02  2.4719166e-02 -9.5211091e-03
 -5.3952355e-02 -4.2779680e-02  8.1191450e-02  5.0438121e-02
  9.9211812e-01  9.8116672e-01  7.3218542e-01  9.9079001e-01
  9.2759639e-01  9.8850936e-01  8.7877738e-01  9.7536570e-01
  9.7004569e-01  9.6756351e-01  1.0011176e+00  9.8543739e-01
  9.9718761e-01  9.7239393e-01  9.8422384e-01  9.7087085e-01
  9.8467559e-01  9.0004349e-01  1.0052459e+00  8.6891896e-01
  9.6442991e-01  9.9687862e-01  9.9072301e-01  9.8237914e-01
  9.9204969e-01  1.0018511e+00  9.9479246e-01  9.8634779e-01
  1.0435179e+00  9.3126082e-01  9.6496403e-01  9.6747249e-01
  1.0171292e+00  9.9171060e-01  9.8622930e-01  9.5053077e-01
  9.5023870e-01  9.5537615e-01  9.8116541e-01  9.8517668e-01
  9.8200428e-01  9.6188807e-01  9.8871231e-01  9.7331023e-01
  9.8314387e-01  9.7981870e-01  1.0023241e+00  9.9236673e-01
  9.1783947e-01  9.8508424e-01  9.7164500e-01  9.2953318e-01
  9.7017211e-01  9.5219553e-01  9.5728010e-01  9.9247396e-01
  1.0016806e+00  9.5917827e-01  1.0187376e+00  9.5944339e-01
  9.6471393e-01  9.7624135e-01  9.8874277e-01  9.8490638e-01
 -6.8089115e-03 -4.1195937e-03  5.4220585e-03  2.7536333e-03
  1.8559380e-02  6.6779046e-03  1.3035807e-01 -4.5473043e-02
 -6.8993114e-02  6.6067725e-02 -1.2115631e-02  8.8843359e-03
  1.6252374e-02 -4.6137613e-03  1.2894982e-03 -8.7392684e-03
 -2.6398890e-03  1.7496275e-02 -2.5452168e-03 -5.6868447e-03
  1.0418450e-02  6.8384357e-04  1.7731765e-03  6.1344402e-03
 -2.7739506e-03 -1.0769925e-02  6.0072700e-03 -1.5257069e-02
 -6.2660731e-02 -5.7716030e-03  1.2372032e-02  2.7899250e-02
 -6.2699921e-02  1.8681878e-02 -1.2090314e-02  2.1202844e-02
 -7.3618689e-03  9.1689326e-02 -1.0962396e-02  9.1925766e-03
  1.7962810e-02  5.9024007e-03  4.4094414e-02  3.5519309e-02
  8.5191382e-03 -1.2214222e-02 -3.8997938e-03  1.3535251e-02
 -4.6347009e-04  4.8618476e-04  1.5452810e-02 -5.7078004e-03
 -1.7200146e-02 -4.9149495e-02 -3.6922004e-02  2.0598487e-03
 -2.1656491e-03  1.4628125e-02 -1.9336886e-03  8.3606150e-03
 -5.7880837e-03  2.4564147e-02 -3.3100392e-04 -1.5697032e-03
  6.2364943e-02 -1.0234988e-02  1.0280628e+00  3.2453775e-02
 -5.3620119e-02  5.8904313e-02  7.5772518e-01 -9.7439952e-02
 -1.1568504e-02 -2.3901528e-02 -3.8090341e-03  5.7476148e-02
  7.9882339e-02 -6.2210187e-02 -1.5608636e-03  3.9000111e-03
  4.5788530e-02  1.4106417e-01  5.7413381e-02  3.2316577e-01
  3.8502263e-03  8.6107468e-03  5.5840105e-02  1.4162470e-01
 -2.7201711e-03  3.2840038e-03  1.3499567e-01  6.8300962e-03
  3.1987805e-02  6.0293561e-01  8.3020233e-02 -6.8857364e-02
 -7.3974162e-02  7.3057622e-02  9.8024309e-02  7.4824452e-02
 -7.9524212e-02  2.2474535e-02 -8.9765247e-03  3.2287050e-02
  5.2660841e-02 -8.7068513e-02  2.1523303e-01 -5.5621569e-03
  2.6158493e-02  3.4674931e-02  2.1288564e-02 -2.9476224e-02
  2.1902150e-01 -1.7621811e-02 -4.2567171e-02 -8.7186247e-02
 -6.0999438e-02 -7.5265192e-03 -5.0143015e-02  2.2344599e-02
  6.1545335e-02 -7.6466925e-02  1.8222021e-02 -1.0054754e-02
 -5.4923166e-02 -4.2554334e-02  7.9238847e-02  4.6658948e-02]
dense/kernel:0
(64, 1)
[[-0.26977357]
 [-0.11979122]
 [ 0.39321414]
 [ 0.15356481]
 [ 0.22809982]
 [-0.22125724]
 [ 0.28594857]
 [-0.13088393]
 [-0.06395691]
 [ 0.21695723]
 [-0.02462621]
 [ 0.2211247 ]
 [-0.20740078]
 [ 0.09471517]
 [-0.12003555]
 [-0.23781383]
 [-0.3185498 ]
 [ 0.19261718]
 [ 0.38156804]
 [-0.343591  ]
 [ 0.14584227]
 [-0.10582396]
 [ 0.27494866]
 [ 0.2537143 ]
 [-0.12848921]
 [ 0.09511212]
 [-0.3219171 ]
 [-0.17702843]
 [-0.24843442]
 [ 0.499292  ]
 [ 0.2857083 ]
 [ 0.10246164]
 [ 0.2026402 ]
 [-0.25952998]
 [ 0.2911492 ]
 [-0.22311501]
 [ 0.04581124]
 [-0.12801406]
 [-0.09040898]
 [-0.17720486]
 [ 0.29232937]
 [-0.19293515]
 [-0.25874072]
 [ 0.01864236]
 [ 0.16765305]
 [ 0.17288229]
 [ 0.32669225]
 [-0.07549609]
 [ 0.12622285]
 [ 0.07520897]
 [-0.24834618]
 [-0.08732889]
 [-0.23452394]
 [-0.17773038]
 [-0.00626158]
 [-0.1517376 ]
 [ 0.3623789 ]
 [ 0.10879252]
 [-0.18243623]
 [ 0.15606222]
 [ 0.00418386]
 [ 0.10039928]
 [-0.23859054]
 [-0.33358777]]
dense/bias:0
(1,)
[0.00076358]
